Language model created by QuickLM on Mon Aug 25 08:48:54 EDT 2014
Copyright (c) 1996-2010 Carnegie Mellon University and Alexander I. Rudnicky

The model is in standard ARPA format, designed by Doug Paul while he was at MITRE.

The code that was used to produce this language model is available in Open Source.
Please visit http://www.speech.cs.cmu.edu/tools/ for more information

The (fixed) discount mass is 0.5. The backoffs are computed using the ratio method.
This model based on a corpus of 114 sentences and 138 words

\data\
ngram 1=138
ngram 2=257
ngram 3=170

\1-grams:
-0.8484 </s> -0.3010
-0.8484 <s> -0.2257
-2.9053 A -0.3005
-2.9053 ADVISED -0.2346
-2.9053 AERODROME -0.2999
-2.6042 AGAIN -0.2346
-2.9053 AIRWAY -0.2346
-2.9053 ALPHA -0.2346
-2.9053 AND -0.2999
-2.9053 ANOTHER -0.3005
-2.9053 APPROACH -0.2346
-2.9053 APPROVED -0.2346
-2.9053 AVOID -0.3005
-2.9053 BEARING -0.2346
-2.9053 BRAVO -0.2346
-2.9053 BRAZILIA -0.2346
-2.9053 BY -0.2994
-2.6042 CANCEL -0.2346
-2.9053 CHARLIE -0.2346
-2.6042 CHROME -0.2346
-2.9053 CIRCLE -0.3005
-2.9053 CIRCUIT -0.2346
-2.9053 CLEARED -0.2346
-2.6042 CLIMB -0.2340
-2.9053 COMMAND -0.2346
-2.9053 CONTACT -0.3005
-2.9053 CONTINUE -0.2989
-2.9053 COURSE -0.2346
-2.9053 CREATED -0.3005
-2.9053 DEGREE -0.2346
-2.6042 DEGREES -0.2346
-2.9053 DELAY -0.2346
-2.9053 DELTA -0.2346
-2.9053 DESCEND -0.2994
-2.3032 DESCENT -0.2315
-2.9053 DIFFER -0.2346
-2.9053 DIFFERENCE -0.2346
-2.9053 DUE -0.2999
-2.9053 EAST -0.2346
-2.9053 ECHO -0.2346
-2.9053 EIGHT -0.2346
-2.9053 ENOUGH -0.2346
-2.9053 EXIT -0.2346
-2.6042 FAILURE -0.2346
-2.9053 FEET -0.2346
-2.9053 FIVE -0.2346
-2.4281 FOR -0.2978
-2.9053 FOUR -0.2346
-2.9053 FOXTROT -0.2346
-2.9053 FURTHER -0.3005
-2.9053 GOLF -0.2346
-2.6042 GOOGLE -0.2999
-2.9053 HEADING -0.2346
-2.4281 HELLO -0.2334
-2.9053 HI -0.2346
-2.9053 HOTEL -0.2346
-2.9053 HUNDRED -0.3005
-2.9053 INCREASE -0.2346
-2.9053 INDIA -0.2346
-2.6042 IS -0.2989
-2.9053 IT -0.2346
-2.9053 JULIETT -0.2346
-2.9053 KILO -0.2346
-2.9053 LEAVING -0.2346
-2.9053 LEFT -0.2346
-2.9053 LEVEL -0.2346
-2.9053 LIMA -0.2346
-2.9053 LOST -0.2346
-2.6042 MADE -0.2989
-2.6042 MAINTAIN -0.2346
-2.4281 MAKE -0.2327
-2.9053 MIKE -0.2346
-2.9053 MILES -0.2346
-2.9053 NINE -0.2346
-2.9053 NORTH -0.2346
-2.9053 NOVEMBER -0.2346
-2.9053 OFF -0.2346
-2.6042 ONE -0.2346
-2.9053 OPEN -0.2999
-2.9053 OSCAR -0.2346
-2.9053 PAPA -0.2346
-2.9053 POHMEW -0.2346
-2.9053 POMEU -0.2346
-2.9053 QUEBEC -0.2346
-2.9053 QUIET -0.2346
-2.9053 QUIT -0.2346
-2.9053 RADIO -0.3005
-2.9053 REACHING -0.2346
-2.9053 RECEIVER -0.2999
-2.9053 REDUCE -0.2346
-2.4281 REPORT -0.2989
-2.9053 REQUEST -0.2989
-2.9053 RIGHT -0.2346
-2.9053 ROMEO -0.2346
-2.9053 RUNWAY -0.2346
-2.9053 SEVEN -0.2346
-2.9053 SIERRA -0.2346
-2.9053 SIGHT -0.2346
-2.9053 SIX -0.2346
-2.9053 SIXTY -0.2999
-2.9053 SOUTH -0.2346
-2.9053 SOUTHWEST -0.2346
-2.9053 SPACING -0.2346
-2.9053 SPEED -0.2346
-2.9053 STAND -0.3005
-2.9053 STANDBY -0.2346
-2.6042 STOP -0.2340
-2.9053 TAKE -0.3005
-2.9053 TANGO -0.2346
-2.9053 TEST -0.2346
-2.9053 TESTING -0.2346
-2.9053 THE -0.3005
-2.9053 THERE -0.2346
-2.4281 THIS -0.2334
-2.6042 THREE -0.2340
-2.4281 TO -0.2340
-2.6042 TRAFFIC -0.2346
-2.9053 TRANSMITTER -0.2999
-2.9053 TRHEE -0.2346
-2.6042 TURN -0.2999
-2.6042 TWO -0.2346
-2.9053 UNIFORM -0.2346
-2.9053 UNKNOWN -0.2999
-2.6042 UNTIL -0.2340
-2.4281 VECTORING -0.2989
-2.9053 VICTOR -0.2346
-2.4281 VOICE -0.2983
-2.9053 WEST -0.2346
-2.9053 WHAT -0.2999
-2.9053 WHISKY -0.2346
-2.4281 WHO -0.2994
-2.9053 WORLD -0.2346
-2.9053 X-RAY -0.2346
-2.9053 YANKEE -0.2346
-2.9053 YOU -0.2346
-2.9053 YOUR -0.2346
-2.9053 ZERO -0.2346
-2.9053 ZULU -0.2346

\2-grams:
-2.3579 <s> AIRWAY 0.0000
-2.3579 <s> ALPHA 0.0000
-2.3579 <s> APPROACH 0.0000
-2.3579 <s> APPROVED 0.0000
-2.3579 <s> AVOID 0.0000
-2.3579 <s> BEARING 0.0000
-2.3579 <s> BRAVO 0.0000
-2.3579 <s> BRAZILIA 0.0000
-2.0569 <s> CANCEL 0.0000
-2.3579 <s> CHARLIE 0.0000
-2.3579 <s> CIRCLE 0.0000
-2.3579 <s> CLEARED 0.0000
-2.0569 <s> CLIMB 0.0000
-2.3579 <s> CONTINUE 0.0000
-2.3579 <s> COURSE 0.0000
-2.3579 <s> DEGREE 0.0000
-2.3579 <s> DEGREES 0.0000
-2.3579 <s> DELTA 0.0000
-2.3579 <s> DESCEND 0.0000
-2.3579 <s> DESCENT -0.1761
-2.3579 <s> DIFFER 0.0000
-2.3579 <s> DIFFERENCE 0.0000
-2.3579 <s> EAST 0.0000
-2.3579 <s> ECHO 0.0000
-2.3579 <s> EIGHT 0.0000
-2.3579 <s> ENOUGH 0.0000
-2.3579 <s> EXIT 0.0000
-2.3579 <s> FEET 0.0000
-2.3579 <s> FIVE 0.0000
-2.3579 <s> FOUR 0.0000
-2.3579 <s> FOXTROT 0.0000
-2.3579 <s> GOLF 0.0000
-2.3579 <s> GOOGLE 0.0000
-2.3579 <s> HEADING 0.0000
-1.8808 <s> HELLO 0.0000
-2.3579 <s> HI 0.0000
-2.3579 <s> HOTEL 0.0000
-2.3579 <s> INCREASE 0.0000
-2.3579 <s> INDIA 0.0000
-2.3579 <s> JULIETT 0.0000
-2.3579 <s> KILO 0.0000
-2.3579 <s> LEVEL 0.0000
-2.3579 <s> LIMA 0.0000
-2.3579 <s> MAINTAIN 0.0000
-1.8808 <s> MAKE 0.0000
-2.3579 <s> MIKE 0.0000
-2.3579 <s> MILES 0.0000
-2.3579 <s> NINE 0.0000
-2.3579 <s> NORTH 0.0000
-2.3579 <s> NOVEMBER 0.0000
-2.3579 <s> ONE 0.0000
-2.3579 <s> OPEN 0.0000
-2.3579 <s> OSCAR 0.0000
-2.3579 <s> PAPA 0.0000
-2.3579 <s> POHMEW 0.0000
-2.3579 <s> POMEU 0.0000
-2.3579 <s> QUEBEC 0.0000
-2.3579 <s> QUIET 0.0000
-2.3579 <s> QUIT 0.0000
-2.3579 <s> RADIO 0.0000
-2.3579 <s> RECEIVER 0.0000
-2.3579 <s> REDUCE 0.0000
-1.8808 <s> REPORT 0.0000
-2.3579 <s> REQUEST 0.0000
-2.3579 <s> ROMEO 0.0000
-2.3579 <s> RUNWAY 0.0000
-2.3579 <s> SEVEN 0.0000
-2.3579 <s> SIERRA 0.0000
-2.3579 <s> SIGHT 0.0000
-2.3579 <s> SIX 0.0000
-2.3579 <s> SOUTH 0.0000
-2.3579 <s> SOUTHWEST 0.0000
-2.3579 <s> SPEED 0.0000
-2.3579 <s> STAND 0.0000
-2.3579 <s> STANDBY 0.0000
-2.0569 <s> STOP 0.0000
-2.3579 <s> TAKE 0.0000
-2.3579 <s> TANGO 0.0000
-2.3579 <s> TESTING 0.0000
-2.3579 <s> THIS -0.2218
-2.3579 <s> THREE -0.1761
-2.3579 <s> TO -0.2218
-2.3579 <s> TRANSMITTER 0.0000
-2.0569 <s> TURN 0.0000
-2.3579 <s> TWO 0.0000
-2.3579 <s> UNIFORM 0.0000
-2.3579 <s> UNTIL -0.1761
-1.8808 <s> VECTORING 0.0000
-2.3579 <s> VICTOR 0.0000
-1.8808 <s> VOICE 0.0000
-2.3579 <s> WEST 0.0000
-2.3579 <s> WHAT 0.0000
-2.3579 <s> WHISKY 0.0000
-1.8808 <s> WHO 0.0000
-2.3579 <s> X-RAY 0.0000
-2.3579 <s> YANKEE 0.0000
-2.3579 <s> ZERO 0.0000
-2.3579 <s> ZULU 0.0000
-0.3010 A TEST 0.0000
-0.3010 ADVISED </s> -0.3010
-0.3010 AERODROME AGAIN 0.0000
-0.3010 AGAIN </s> -0.3010
-0.3010 AIRWAY </s> -0.3010
-0.3010 ALPHA </s> -0.3010
-0.3010 AND MAINTAIN 0.0000
-0.3010 ANOTHER CIRCUIT 0.0000
-0.3010 APPROACH </s> -0.3010
-0.3010 APPROVED </s> -0.3010
-0.3010 AVOID UNKNOWN 0.0000
-0.3010 BEARING </s> -0.3010
-0.3010 BRAVO </s> -0.3010
-0.3010 BRAZILIA </s> -0.3010
-0.3010 BY FOR -0.2218
-0.3010 CANCEL </s> -0.3010
-0.3010 CHARLIE </s> -0.3010
-0.3010 CHROME </s> -0.3010
-0.3010 CIRCLE THE 0.0000
-0.3010 CIRCUIT </s> -0.3010
-0.3010 CLEARED </s> -0.3010
-0.6021 CLIMB </s> -0.3010
-0.6021 CLIMB AND 0.0000
-0.3010 COMMAND </s> -0.3010
-0.3010 CONTACT LOST 0.0000
-0.3010 CONTINUE DESCENT -0.2430
-0.3010 COURSE </s> -0.3010
-0.3010 CREATED YOU 0.0000
-0.3010 DEGREE </s> -0.3010
-0.3010 DEGREES </s> -0.3010
-0.3010 DELAY </s> -0.3010
-0.3010 DELTA </s> -0.3010
-0.3010 DESCEND TO -0.1249
-0.6021 DESCENT </s> -0.3010
-0.9031 DESCENT TO -0.1249
-0.9031 DESCENT UNTIL -0.1761
-0.3010 DIFFER </s> -0.3010
-0.3010 DIFFERENCE </s> -0.3010
-0.3010 DUE TRAFFIC 0.0000
-0.3010 EAST </s> -0.3010
-0.3010 ECHO </s> -0.3010
-0.3010 EIGHT </s> -0.3010
-0.3010 ENOUGH </s> -0.3010
-0.3010 EXIT </s> -0.3010
-0.3010 FAILURE </s> -0.3010
-0.3010 FEET </s> -0.3010
-0.3010 FIVE </s> -0.3010
-0.7782 FOR DELAY 0.0000
-0.7782 FOR DESCENT -0.1761
-0.7782 FOR SPACING 0.0000
-0.3010 FOUR </s> -0.3010
-0.3010 FOXTROT </s> -0.3010
-0.3010 FURTHER ADVISED 0.0000
-0.3010 GOLF </s> -0.3010
-0.3010 GOOGLE CHROME 0.0000
-0.3010 HEADING </s> -0.3010
-0.7782 HELLO </s> -0.3010
-0.7782 HELLO THERE 0.0000
-0.7782 HELLO WORLD 0.0000
-0.3010 HI </s> -0.3010
-0.3010 HOTEL </s> -0.3010
-0.3010 HUNDRED SIXTY 0.0000
-0.3010 INCREASE </s> -0.3010
-0.3010 INDIA </s> -0.3010
-0.6021 IS A 0.0000
-0.6021 IS THIS -0.1249
-0.3010 IT </s> -0.3010
-0.3010 JULIETT </s> -0.3010
-0.3010 KILO </s> -0.3010
-0.3010 LEAVING </s> -0.3010
-0.3010 LEFT </s> -0.3010
-0.3010 LEVEL </s> -0.3010
-0.3010 LIMA </s> -0.3010
-0.3010 LOST </s> -0.3010
-0.6021 MADE IT 0.0000
-0.6021 MADE THIS -0.1249
-0.3010 MAINTAIN </s> -0.3010
-0.7782 MAKE </s> -0.3010
-0.7782 MAKE ANOTHER 0.0000
-0.7782 MAKE THREE -0.1761
-0.3010 MIKE </s> -0.3010
-0.3010 MILES </s> -0.3010
-0.3010 NINE </s> -0.3010
-0.3010 NORTH </s> -0.3010
-0.3010 NOVEMBER </s> -0.3010
-0.3010 OFF </s> -0.3010
-0.3010 ONE </s> -0.3010
-0.3010 OPEN GOOGLE 0.0000
-0.3010 OSCAR </s> -0.3010
-0.3010 PAPA </s> -0.3010
-0.3010 POHMEW </s> -0.3010
-0.3010 POMEU </s> -0.3010
-0.3010 QUEBEC </s> -0.3010
-0.3010 QUIET </s> -0.3010
-0.3010 QUIT </s> -0.3010
-0.3010 RADIO CONTACT 0.0000
-0.3010 REACHING </s> -0.3010
-0.3010 RECEIVER FAILURE 0.0000
-0.3010 REDUCE </s> -0.3010
-0.7782 REPORT AGAIN 0.0000
-0.7782 REPORT LEAVING 0.0000
-0.7782 REPORT REACHING 0.0000
-0.3010 REQUEST DESCENT -0.2430
-0.3010 RIGHT </s> -0.3010
-0.3010 ROMEO </s> -0.3010
-0.3010 RUNWAY </s> -0.3010
-0.3010 SEVEN </s> -0.3010
-0.3010 SIERRA </s> -0.3010
-0.3010 SIGHT </s> -0.3010
-0.3010 SIX </s> -0.3010
-0.3010 SIXTY DEGREES 0.0000
-0.3010 SOUTH </s> -0.3010
-0.3010 SOUTHWEST </s> -0.3010
-0.3010 SPACING </s> -0.3010
-0.3010 SPEED </s> -0.3010
-0.3010 STAND BY 0.0000
-0.3010 STANDBY </s> -0.3010
-0.6021 STOP </s> -0.3010
-0.6021 STOP COMMAND 0.0000
-0.3010 TAKE OFF 0.0000
-0.3010 TANGO </s> -0.3010
-0.3010 TEST </s> -0.3010
-0.3010 TESTING </s> -0.3010
-0.3010 THE AERODROME 0.0000
-0.3010 THERE </s> -0.3010
-0.4771 THIS </s> -0.3010
-0.7782 THIS IS -0.1761
-0.6021 THREE </s> -0.3010
-0.6021 THREE HUNDRED 0.0000
-0.4771 TO </s> -0.3010
-0.7782 TO YOUR 0.0000
-0.3010 TRAFFIC </s> -0.3010
-0.3010 TRANSMITTER FAILURE 0.0000
-0.3010 TRHEE </s> -0.3010
-0.6021 TURN LEFT 0.0000
-0.6021 TURN RIGHT 0.0000
-0.3010 TWO </s> -0.3010
-0.3010 UNIFORM </s> -0.3010
-0.3010 UNKNOWN TRAFFIC 0.0000
-0.6021 UNTIL </s> -0.3010
-0.6021 UNTIL FURTHER 0.0000
-0.7782 VECTORING DUE 0.0000
-0.4771 VECTORING FOR -0.1249
-0.3010 VICTOR </s> -0.3010
-0.7782 VOICE ONE 0.0000
-0.7782 VOICE TRHEE 0.0000
-0.7782 VOICE TWO 0.0000
-0.3010 WEST </s> -0.3010
-0.3010 WHAT IS -0.1761
-0.3010 WHISKY </s> -0.3010
-0.7782 WHO CREATED 0.0000
-0.4771 WHO MADE 0.0000
-0.3010 WORLD </s> -0.3010
-0.3010 X-RAY </s> -0.3010
-0.3010 YANKEE </s> -0.3010
-0.3010 YOU </s> -0.3010
-0.3010 YOUR </s> -0.3010
-0.3010 ZERO </s> -0.3010
-0.3010 ZULU </s> -0.3010

\3-grams:
-0.3010 <s> AIRWAY </s>
-0.3010 <s> ALPHA </s>
-0.3010 <s> APPROACH </s>
-0.3010 <s> APPROVED </s>
-0.3010 <s> AVOID UNKNOWN
-0.3010 <s> BEARING </s>
-0.3010 <s> BRAVO </s>
-0.3010 <s> BRAZILIA </s>
-0.3010 <s> CANCEL </s>
-0.3010 <s> CHARLIE </s>
-0.3010 <s> CIRCLE THE
-0.3010 <s> CLEARED </s>
-0.6021 <s> CLIMB </s>
-0.6021 <s> CLIMB AND
-0.3010 <s> CONTINUE DESCENT
-0.3010 <s> COURSE </s>
-0.3010 <s> DEGREE </s>
-0.3010 <s> DEGREES </s>
-0.3010 <s> DELTA </s>
-0.3010 <s> DESCEND TO
-0.3010 <s> DESCENT </s>
-0.3010 <s> DIFFER </s>
-0.3010 <s> DIFFERENCE </s>
-0.3010 <s> EAST </s>
-0.3010 <s> ECHO </s>
-0.3010 <s> EIGHT </s>
-0.3010 <s> ENOUGH </s>
-0.3010 <s> EXIT </s>
-0.3010 <s> FEET </s>
-0.3010 <s> FIVE </s>
-0.3010 <s> FOUR </s>
-0.3010 <s> FOXTROT </s>
-0.3010 <s> GOLF </s>
-0.3010 <s> GOOGLE CHROME
-0.3010 <s> HEADING </s>
-0.7782 <s> HELLO </s>
-0.7782 <s> HELLO THERE
-0.7782 <s> HELLO WORLD
-0.3010 <s> HI </s>
-0.3010 <s> HOTEL </s>
-0.3010 <s> INCREASE </s>
-0.3010 <s> INDIA </s>
-0.3010 <s> JULIETT </s>
-0.3010 <s> KILO </s>
-0.3010 <s> LEVEL </s>
-0.3010 <s> LIMA </s>
-0.3010 <s> MAINTAIN </s>
-0.7782 <s> MAKE </s>
-0.7782 <s> MAKE ANOTHER
-0.7782 <s> MAKE THREE
-0.3010 <s> MIKE </s>
-0.3010 <s> MILES </s>
-0.3010 <s> NINE </s>
-0.3010 <s> NORTH </s>
-0.3010 <s> NOVEMBER </s>
-0.3010 <s> ONE </s>
-0.3010 <s> OPEN GOOGLE
-0.3010 <s> OSCAR </s>
-0.3010 <s> PAPA </s>
-0.3010 <s> POHMEW </s>
-0.3010 <s> POMEU </s>
-0.3010 <s> QUEBEC </s>
-0.3010 <s> QUIET </s>
-0.3010 <s> QUIT </s>
-0.3010 <s> RADIO CONTACT
-0.3010 <s> RECEIVER FAILURE
-0.3010 <s> REDUCE </s>
-0.7782 <s> REPORT AGAIN
-0.7782 <s> REPORT LEAVING
-0.7782 <s> REPORT REACHING
-0.3010 <s> REQUEST DESCENT
-0.3010 <s> ROMEO </s>
-0.3010 <s> RUNWAY </s>
-0.3010 <s> SEVEN </s>
-0.3010 <s> SIERRA </s>
-0.3010 <s> SIGHT </s>
-0.3010 <s> SIX </s>
-0.3010 <s> SOUTH </s>
-0.3010 <s> SOUTHWEST </s>
-0.3010 <s> SPEED </s>
-0.3010 <s> STAND BY
-0.3010 <s> STANDBY </s>
-0.6021 <s> STOP </s>
-0.6021 <s> STOP COMMAND
-0.3010 <s> TAKE OFF
-0.3010 <s> TANGO </s>
-0.3010 <s> TESTING </s>
-0.3010 <s> THIS IS
-0.3010 <s> THREE </s>
-0.3010 <s> TO YOUR
-0.3010 <s> TRANSMITTER FAILURE
-0.6021 <s> TURN LEFT
-0.6021 <s> TURN RIGHT
-0.3010 <s> TWO </s>
-0.3010 <s> UNIFORM </s>
-0.3010 <s> UNTIL FURTHER
-0.7782 <s> VECTORING DUE
-0.4771 <s> VECTORING FOR
-0.3010 <s> VICTOR </s>
-0.7782 <s> VOICE ONE
-0.7782 <s> VOICE TRHEE
-0.7782 <s> VOICE TWO
-0.3010 <s> WEST </s>
-0.3010 <s> WHAT IS
-0.3010 <s> WHISKY </s>
-0.7782 <s> WHO CREATED
-0.4771 <s> WHO MADE
-0.3010 <s> X-RAY </s>
-0.3010 <s> YANKEE </s>
-0.3010 <s> ZERO </s>
-0.3010 <s> ZULU </s>
-0.3010 A TEST </s>
-0.3010 AERODROME AGAIN </s>
-0.3010 AND MAINTAIN </s>
-0.3010 ANOTHER CIRCUIT </s>
-0.3010 AVOID UNKNOWN TRAFFIC
-0.3010 BY FOR DESCENT
-0.3010 CIRCLE THE AERODROME
-0.3010 CLIMB AND MAINTAIN
-0.3010 CONTACT LOST </s>
-0.3010 CONTINUE DESCENT UNTIL
-0.3010 CREATED YOU </s>
-0.3010 DESCEND TO </s>
-0.3010 DESCENT TO </s>
-0.3010 DESCENT UNTIL </s>
-0.3010 DUE TRAFFIC </s>
-0.3010 FOR DELAY </s>
-0.3010 FOR DESCENT </s>
-0.3010 FOR SPACING </s>
-0.3010 FURTHER ADVISED </s>
-0.3010 GOOGLE CHROME </s>
-0.3010 HELLO THERE </s>
-0.3010 HELLO WORLD </s>
-0.3010 HUNDRED SIXTY DEGREES
-0.3010 IS A TEST
-0.3010 IS THIS </s>
-0.3010 MADE IT </s>
-0.3010 MADE THIS </s>
-0.3010 MAKE ANOTHER CIRCUIT
-0.3010 MAKE THREE HUNDRED
-0.3010 OPEN GOOGLE CHROME
-0.3010 RADIO CONTACT LOST
-0.3010 RECEIVER FAILURE </s>
-0.3010 REPORT AGAIN </s>
-0.3010 REPORT LEAVING </s>
-0.3010 REPORT REACHING </s>
-0.3010 REQUEST DESCENT TO
-0.3010 SIXTY DEGREES </s>
-0.3010 STAND BY FOR
-0.3010 STOP COMMAND </s>
-0.3010 TAKE OFF </s>
-0.3010 THE AERODROME AGAIN
-0.3010 THIS IS A
-0.3010 THREE HUNDRED SIXTY
-0.3010 TO YOUR </s>
-0.3010 TRANSMITTER FAILURE </s>
-0.3010 TURN LEFT </s>
-0.3010 TURN RIGHT </s>
-0.3010 UNKNOWN TRAFFIC </s>
-0.3010 UNTIL FURTHER ADVISED
-0.3010 VECTORING DUE TRAFFIC
-0.6021 VECTORING FOR DELAY
-0.6021 VECTORING FOR SPACING
-0.3010 VOICE ONE </s>
-0.3010 VOICE TRHEE </s>
-0.3010 VOICE TWO </s>
-0.3010 WHAT IS THIS
-0.3010 WHO CREATED YOU
-0.6021 WHO MADE IT
-0.6021 WHO MADE THIS

\end\
